solver_type L2R_L2LOSS_SVC_DUAL
nr_class 2
label 1 -1
nr_feature 2048
bias -1
w
0.03880775276933436 
0.008389304023783566 
-0.003434025489511021 
0.00424491869057722 
0.01820764483378957 
0.01428818255973775 
-0.009482451243693665 
0.001160783959312104 
-0.02608304706776184 
0.002039769372222888 
-0.05596092911992899 
0.01583409466066676 
0.003078879905303172 
-0.04869585747610809 
-0.03867593020142829 
0.02847283093948027 
0.01726078005069494 
-0.0186731717875387 
-0.003467306296635221 
0.03856712123233916 
0.02421024150519543 
-0.08140937677277492 
0.007256159789617641 
0.004137771521112777 
-0.01581980172616827 
-0.0265716545746216 
-0.03331361063483428 
0.008938923697036669 
-0.004271459477299904 
-0.03313742684089686 
-0.009590384253742769 
-0.009766233239192465 
0.01102859297932884 
0.0493326551858205 
-0.007630321444693296 
0.1014087487603053 
-0.006148355579651077 
0.06712655126834607 
-0.02264323133925817 
0.04285630239243078 
-0.09555062674529556 
-0.07951583826452262 
0.01071193891826794 
0.0511310587981331 
-0.02096742921235397 
0.04334779350115319 
-0.06060929964433793 
0.0965887248738103 
0.09416912765378416 
-0.1228464059898121 
-0.04038721427230069 
0.08589849544938633 
0.0217907502089048 
-0.04230992099433184 
-0.219906772915092 
-0.1123385598165126 
0.007548455140592021 
-0.03523902658489349 
-0.01389446742366814 
-0.007309835668978335 
0.006488157715861029 
-0.06746837019433373 
-0.05845403229918328 
-0.0502100953968321 
0.05304896050155871 
0.01959942507749785 
-0.06234106884997534 
0.06908118008041042 
0.007181351328192185 
0.06518903955027608 
-0.07578556023573524 
0.06684469545059196 
0.0325035599921689 
-0.1365572796305323 
-0.02992501665612356 
0.01910241435222236 
-0.07999010340874432 
0.07361383743320127 
-0.1014143411878746 
0.04416274877822007 
0.03782355890328436 
0.03044553852972037 
0.1593492270842364 
-0.0007601887796953733 
-0.002267179214731902 
0.07523245273403791 
-0.04132509524140639 
0.04377567439930759 
0.03265631167386483 
-0.02880399954988925 
-0.05187797125505635 
0.0006829782718011084 
0.01487341445372024 
0.01525548022268271 
-0.02514778882815042 
-0.02200189139111199 
0.03243029189343328 
0.01380300615081728 
0.004380262422495859 
0.02378690149867953 
0.0263604913204871 
0.007407190100427475 
-0.02871850336065717 
-0.01613018140693592 
0.01395108345453775 
-0.02178184119145798 
-0.05329824217112965 
-0.01285592838247371 
0.05251686766440049 
0.001045822703329474 
-0.02974981607068965 
-3.67250998265444e-05 
0.0658281708386276 
0.07501577151425384 
0.003234584715578181 
0.01685438145906522 
-0.002518983029238111 
0.02919334901405831 
-0.007357767535353063 
0.02139398562751 
-0.008027726013050063 
-0.01575382765525589 
-0.001729844219513219 
-0.006415963222772252 
-0.004122116701543815 
-0.0182441545011501 
0.01768281035493241 
0.02383411789892227 
0.01072882305001237 
0.008612013172094191 
0.0244679431680743 
-0.01359548820487762 
-0.004260541504776785 
0.01848807028485586 
0.02095132486571517 
-0.0206301940681382 
-0.0446406665006896 
0.05026508353616701 
0.05562533536551385 
0.007168918448047203 
0.02757082407232741 
0.02889871591190786 
0.05349111110218775 
-0.003769234534848466 
-0.02250451615476098 
-0.01916768975777158 
-0.104193450112922 
-0.06174244397513651 
0.06718622051172032 
-0.03720605948673104 
0.009352055227886298 
0.04265032156684732 
-0.001492946448918078 
-0.001334377738566717 
0.0155224789516548 
-0.0129898541194798 
-0.0145205772473276 
-0.006485542377038912 
0.02171433339018883 
0.0005384053029751157 
0.04707890501503095 
0.0188909758107926 
0.09162278934443915 
0.02054810601208315 
-0.05911546253604057 
0.05647738667579024 
0.01798948988125909 
-0.0006981736685953811 
-0.07969572545132288 
-0.1022756807248279 
0.001236871762877508 
-0.06352596711508934 
-0.1819720346522043 
0.08309633571581877 
-0.1048154141674394 
0.05112422920487238 
-0.0095457211074762 
-0.08624420736777241 
-0.04454233800529243 
-0.01951655009257492 
-0.08265314795385392 
-0.01242828490295774 
-0.03497858362668389 
-0.0298054095622057 
0.01730002182218006 
-0.0236984144642454 
-0.02915282950500654 
-0.01375820561375404 
0.01919912228133607 
-0.00112412500204362 
-0.010324421327636 
0.01650039028951834 
0.08919964533190301 
0.008998771434512364 
0.02033984688189977 
0.006057496444125545 
0.03651372962841709 
-0.01688869637332852 
0.0239412002916372 
-0.02016515642078221 
-0.1146568424464434 
-0.01726286719010364 
-0.001773870860061705 
-0.01174190937220895 
-0.009315042597916325 
-0.1052559545746388 
0.095930094191389 
0.08819965597360695 
-0.01992318005737544 
-0.04003738023468063 
-0.02485558166568948 
-0.08145371500628522 
-0.003913801249109255 
-0.04071121640897424 
0.009809739574303821 
0.004331897316448635 
0.03380717249254113 
0.02144106852024693 
0.01875720778307098 
-0.01957005195697844 
-0.01780815886043782 
0.01823478774761499 
0.02393385140629936 
0.002943298968949752 
0.028914152329166 
-0.0009295054060345905 
0.008805360712397922 
0.007528386137043208 
0.00155805144199212 
4.872353189397015e-05 
-0.01005795052174228 
-0.01017114413149172 
-0.01647692218630232 
-0.003532585889219443 
-0.02089571735539215 
-0.01569536966443455 
0.01162952001740453 
-0.06312892310443864 
0.01235075555317555 
0.04504917868472828 
0.01199671768158117 
0.06603689547321852 
0.005292481263417784 
-0.02926053980358769 
0.04301400321936796 
-0.01710775422265059 
-0.006921710727665896 
0.007481395753540005 
-0.0008912263634090159 
-0.02669492238700878 
-0.002507602738144682 
-0.005946927838984888 
0.01611765279157771 
0.007086624657586544 
-0.006475118422571279 
0.007623427964257959 
0.004102932745465439 
0.0114568158924999 
0.01098929197186232 
0.01039427507984965 
0.01707935843802551 
0.0151993549092716 
0.007252546493911649 
0.01598468778655182 
-0.002060262162396354 
-0.006943114023865746 
-0.02994090051841421 
-0.004193238340977712 
0.04540387699253159 
0.004041826039711913 
-0.0002622710720258108 
-0.007927161270853482 
-0.04994374704480326 
0.03959222594059008 
-0.03442373150824777 
-0.02538236620495272 
0.0196483255842381 
-0.0146180320355401 
0.01063547019704961 
0.02657651927112198 
-0.005724737500405112 
0.002071350146506822 
-0.0151514050967281 
-0.007254266456912435 
0.002552458146781898 
-0.001399464384824168 
0.002133291901035848 
-0.001977106649976954 
-0.0226409388776945 
0.02704090975413326 
-0.003308515752026489 
-0.03915819285485936 
0.03299722993097917 
0.02665404870038305 
0.02061756357361857 
0.01900347268998739 
-0.04252680045763919 
-0.05100217617890041 
-0.07786882577667152 
-0.102323247677432 
0.03281315528929674 
0.02739451391782376 
0.003795863117569776 
0.06521431306410889 
-0.1275243942174712 
0.09787309502059602 
-0.166166655663269 
-0.06766239515565756 
0.06720931484245712 
-0.07756006350784383 
0.003780013280718406 
0.06816152443610247 
-0.03867928486112173 
0.03208306652891218 
-0.08022478089354507 
-0.03901937733285295 
0.07493685811116976 
-0.0006418274930962033 
0.0175333833372948 
0.05897649029629462 
-0.03094347716915144 
-0.01315873225940722 
0.0401447671432488 
0.002965551110322596 
-0.043737476773465 
0.05255192072319382 
0.02985413160626135 
-0.005303986001067856 
-0.0948770699268046 
-0.1411686675812108 
-0.06536856466312196 
-0.09247177655631432 
-0.03287340395486226 
0.05392191280798483 
-0.003248065693587503 
0.03492495428540567 
0.01037308547835139 
0.02959001567222122 
-0.05909075399379033 
-0.009261013009013403 
0.07251350490993666 
0.06323077731178692 
-0.07111034139693924 
0.08295576357203005 
-0.01071240648376804 
0.007160097253038974 
-0.05887937496302291 
-0.05887790596108441 
0.07824255251561789 
-0.01829403915007467 
0.01141818185574742 
0.02123521979388759 
-0.008878185520506324 
-0.006065674857354823 
0.004288244260674021 
-0.009157962418510373 
-0.009448246324885031 
-0.001104697961713721 
0.002895424877134659 
0.007922795600757928 
-0.04954077937105908 
-0.03920852461992189 
-0.05449403223234869 
0.01350605712263823 
-0.03705749431995647 
0.01600406852745061 
-0.0403989523761631 
0.06257241037103066 
0.01690492770206654 
0.006806005576378691 
-0.01289849987252108 
0.02034039860297824 
0.009114093976870696 
0.02828590901583738 
-0.002838395014621773 
0.04479591457513391 
-0.008223429213399887 
-0.001094616959429085 
-0.01090857160683054 
-0.01683518863674587 
0.009643205612353486 
0.002815436031703652 
0.0002392253405470986 
-0.0008272974806141873 
0.01066649136549445 
0.05804313396472324 
-0.03659949523995701 
0.06099362800035386 
-0.003916650954890002 
0.0456984817162627 
-0.02073487412862738 
0.04827768176144864 
-0.04519551441205465 
0.0207679518750938 
-0.008331547136384834 
0.06315678909982243 
0.03898073212364241 
0.08784992734548128 
0.01752264079034651 
0.1076697228836209 
0.000719069591838026 
0.06916230327202215 
-0.02763121130674683 
0.05521912325094961 
0.04334329791594694 
0.03003862843128401 
0.02273928156552847 
0.08032161775022004 
-0.00097156459527737 
0.0435151960850953 
-0.004387315815061765 
0.04891816069138854 
0.01656718832058156 
0.01126374550732635 
0.007278934869805643 
0.04101103549543482 
-0.07168437744669223 
0.1474492960781419 
-0.04256191275549415 
0.1591330127906225 
-0.01888048453558733 
0.1233323807439 
-0.01266182891177786 
0.08928193982655791 
-0.0134986919658618 
0.04420054679171373 
-0.03716066853380243 
0.002195039508878352 
0.04103523994169729 
0.1598887951402364 
-0.1187255272226871 
0.1060713851063475 
0.05483639860169208 
0.1695240320692416 
-0.08776758829377335 
0.04215522415171902 
0.1161359898189507 
0.179319242968862 
0.01725100131567188 
0.1351103942758819 
0.05403462142079745 
0.09706496951970128 
0.06077796272497508 
0.09628090347095225 
0.04128477245017718 
0.07414321085021712 
0.00460280957949766 
0.1110202912490472 
-0.1239422699148907 
0.09004553593636172 
-0.03515442159505383 
0.1904813811106565 
-0.03162782950619206 
0.1016008122024576 
0.03665664488123471 
0.1446437207554261 
-0.02954959388479455 
-0.04887077754192792 
-0.01245399327561581 
-0.0114068992937444 
0.05155778680764023 
0.3233091965174931 
0.02935930844918704 
0.06824955948870465 
-0.0211456931061897 
-0.153937279615374 
0.05648202082468233 
0.04407259576945348 
-0.07090161627085168 
0.1941121421037282 
-0.0491415089227171 
0.07141700617400432 
0.0433108365554529 
0.03990277749814943 
0.004645751103144248 
0.0627014136526428 
0.0009499559613121041 
0.07183135167056932 
0.003933219560912657 
0.05620187851304976 
0.005139917085613652 
0.03367427193964876 
0.005863676736024629 
0.04715178007272144 
0.009791255943163412 
0.04905083077336587 
0.01417164650848199 
0.03628158738653699 
-0.0399127308838235 
0.04688320758565803 
0.00792181898908205 
0.05947902763646811 
-0.04666866368714851 
0.1020457000795545 
0.04303398768128257 
0.05594725336403922 
-0.003374586149419566 
0.008134072665541699 
-0.01195017720490997 
0.05061167792520716 
-0.02437330537481978 
0.0490138366697527 
-0.04458984791828367 
0.106179067847424 
0.02248724724374114 
0.06502069446874102 
-0.003808518453611273 
0.01962463408930679 
-0.0009841676543256997 
0.01511892046591765 
-0.02463863953942914 
0.0122756313835279 
0.006524362282039511 
-0.001211632376767431 
-0.008379684337997514 
0.02775074063002899 
-0.04732756141114831 
-0.01248119012319221 
-0.02516997264350474 
0.0010226678002494 
0.03627286168957831 
-0.004477443033135249 
-0.07659892256252762 
0.05845036224989734 
-0.02725419539260054 
0.04514778752482089 
-0.02694854713317353 
0.01264919213315805 
0.08211402928449178 
0.007063412240525856 
-0.09264607067928438 
0.02066167839727301 
0.03628405000528339 
-0.01428592950925221 
0.009147279779578675 
0.04434082763534641 
0.03930081752204918 
-0.03310073847877722 
-0.02368796162546098 
0.01304662390549519 
0.0006484520480892808 
0.007237142508655177 
-0.006247744930491304 
0.01913310956037331 
-0.0481718119224489 
0.02020747481375046 
0.0779154898336932 
0.02524215533434935 
-0.04342755761185151 
0.01072911619708935 
-0.06390782176046279 
0.05559391608473609 
0.09649941133947842 
-0.03373699174502073 
-0.02375317406079029 
0.06348773951330705 
0.03075642325278315 
0.06271674564584308 
-0.1853697475359204 
-0.0768250712193618 
0.07436213553119922 
-0.1185932726279739 
-0.1423945359507082 
0.06919248076072224 
0.01308358138718245 
-0.04718111661842919 
-0.07428191690316602 
-0.01072905841483492 
0.1084134560974967 
-0.05838859521987735 
-0.02021909749631269 
-0.02333055262762999 
0.04106541257767783 
-0.01294666429528453 
0.03057593068167802 
-0.04117177442749904 
-0.02658993766438377 
0.04565525030299247 
0.1197294300281536 
-0.001128251766456891 
0.01882991431811967 
0.04009191146727117 
0.06006672614361408 
0.06219396264415666 
0.04748663935558281 
0.06510122403443785 
-0.178411169397146 
-0.0873772395688262 
0.1251051615678078 
-0.05741132349929393 
0.1115533402518358 
-0.03986878229822535 
0.105942134638417 
0.01128725283136374 
-0.2454638844655316 
0.08622388605894823 
0.05924594060390846 
-0.02809417378524616 
0.04140418603516401 
-0.04725768765759852 
0.06399509867755408 
-0.07398613349600232 
-0.002662314500669218 
-0.05301458684285815 
-0.01127442985007329 
-0.04008585026122133 
0.0236090416846557 
-0.05950467775219633 
0.01408399644585735 
0.02891386115884213 
0.05142734328835934 
-0.01487418964297397 
-0.001468342612186537 
0.01329312950387795 
0.04474745911844481 
0.01041163957991106 
0.03625355437406046 
-0.000335942107108118 
-0.08459524226421572 
-0.08460089610427138 
-0.002295031054593062 
0.08176438519847372 
0.03339950342233113 
-0.004379262016574143 
-0.02242939256326044 
-0.006221754679066091 
-0.09088249297001126 
-0.006658457543886745 
-0.02881636132686055 
-0.02972331988482866 
0.08017563989916031 
-0.01331858215788261 
0.02083803097389157 
-0.02211065219936709 
0.002116646381127669 
-0.02965723029473897 
0.01444068990083405 
0.009683687105735951 
0.01796731340676747 
-0.007876510474008242 
-0.01094317124040169 
0.002999079925079576 
-0.01494434190197125 
-0.0006778418916205572 
-0.002821830822552036 
-0.01988513692394276 
0.02423968749632385 
0.001314146618925556 
-0.03124413021749824 
0.05268012474117814 
0.01345495389898019 
0.02398057636915042 
0.0396080921503096 
0.001442420857980946 
0.04934752261079103 
-0.002160682625345516 
0.03078893971200232 
0.03358876460958016 
-0.009159989926508046 
-0.04489124343538764 
0.0289353695157526 
-0.05843838464553483 
0.01066180186479889 
-0.01038366560885077 
0.01660682229547883 
0.0002040378651633299 
-0.004922406349331661 
-0.01412981416539221 
0.001710738811633388 
-0.01559290977628771 
-0.005309763562292948 
-0.01727250028386227 
-0.001158783158294885 
0.03929935958252684 
-0.02594798135891503 
-0.01365340445894725 
-0.01084745260348358 
-0.03079261793360408 
0.01666102046418836 
-0.001820456896754722 
0.0336345449307851 
0.1019261638409127 
-0.03428590479483643 
-0.0002277555419680339 
-0.03193346504965197 
-0.07961946674948529 
0.006468117673475385 
-0.002799118115224329 
0.002528211560528348 
-0.04342633396875651 
-0.07029700864501204 
-0.05383811638043012 
0.04913701781969012 
-0.05441055544671854 
-0.03644375286848259 
-0.03080160463887591 
0.04012088937300724 
-0.04523193892693348 
-0.02378264050057768 
-0.05323825354242126 
0.0254130265442606 
-0.02806487428105712 
-0.003308753450909559 
-0.03968549671440756 
-0.006387932303500719 
0.01690992311305079 
0.00715163425001524 
-0.05994808928098003 
0.000727747356364543 
-0.04856055793520579 
0.02956947604832625 
-0.03078309482308896 
-0.008439434224788642 
0.1548078749545006 
-0.06959761342276528 
0.02106258416239216 
-0.04017707612779123 
-0.09877190790642233 
0.08623987655080723 
-0.02947707980572802 
-0.02217359140733612 
-0.09045507812786155 
-0.02716779346114985 
-0.03194992793167453 
0.002981172595707367 
-0.09721763596470848 
-0.004005321144519042 
-0.06000933561373567 
0.04909652134553091 
-0.02899959567063616 
-0.003794040690117277 
-0.04924549064650156 
0.03278237843685034 
-0.025666592065578 
0.005283424125775754 
-0.03714344175399785 
0.008276096570071679 
-0.003614787353299122 
-0.001266301904864147 
-0.03489330877650223 
0.0140842840691211 
-0.005184168050972042 
0.01471492715732461 
-0.002113580677542699 
0.00510997526377903 
0.03118035510492896 
-0.06231095797026569 
0.08257303510413598 
-0.03419785985408513 
-0.03352057686986747 
-0.02953246831282377 
0.03320001507814731 
0.003187329201739052 
-0.004533258457112314 
0.0005331485540876044 
-0.01920687505343182 
0.0005275132608543997 
-0.02758925214262286 
0.0200380618446071 
0.002239108456687779 
0.007052184481188142 
-0.003266130280336428 
0.008531854272109127 
-0.02571153510506115 
0.003404456836358385 
-0.01715221827844392 
0.01593907620555323 
-0.01290239848278608 
0.005837554742184811 
-0.005226083430565383 
0.004940052614048797 
-0.0150088313896837 
0.0186735363236251 
0.0008916011841549075 
0.0192828373607134 
0.000192808952545284 
-0.03246026974644214 
-0.02402942909092165 
-0.01783232224825899 
-0.02259798566227521 
0.02507481677978805 
0.0006258225310073666 
0.04962539340063243 
0.004570107014517777 
-0.0373482470061461 
0.01269287914830856 
-0.03109638070684331 
0.002021038089168186 
0.0130686493465047 
-0.0249214538236704 
0.01454511997992184 
0.001636439654336976 
-0.01543544706780321 
-0.004930652803750085 
0.009388356976952103 
-0.02428768665068713 
0.005709826607971142 
0.0133389786043546 
0.0270449755186544 
0.006289564500081102 
-0.004227361568874263 
-0.02748764243561177 
-0.0009111611785395259 
-0.01416046638588247 
0.008149642365871212 
-0.0100397537067509 
0.01756227035356539 
-0.02123800999857564 
-0.0571715112950886 
-0.09818858302254464 
-0.1127385636881606 
-0.1058927971805018 
0.07205570830866585 
-0.03883908859435141 
6.056764825089076e-05 
0.01512369094971986 
-0.0498057765174189 
-0.01615524220264593 
-0.05272498784234468 
-0.00403384694653504 
-0.0158617519448043 
-0.05758287700546052 
0.02508541541992589 
-0.001630700180752447 
-0.03577161565278626 
-0.001534565883982234 
-0.03597402970782127 
0.002274859839396189 
-0.000689665028236927 
-0.005383327563665173 
-0.0004225402639260229 
0.02692891507626895 
-0.007234591241185786 
-0.05455918372400749 
0.008245256063027014 
-0.04212729803458478 
-0.0009240981680219141 
0.005722627981625505 
0.01090988076854747 
0.002064840024743292 
-0.08898183259829519 
-0.1250216067149319 
-0.1754858726539621 
-0.1713821642938605 
-0.06009465057837559 
-0.02189653423073099 
-0.05438656138442535 
0.06334609042249582 
0.003873382393606245 
0.02025953580470466 
-0.02650140665383569 
0.01122136986639591 
-0.02111981139575642 
-0.02381134483678446 
-0.1094057020059371 
0.05029902322369077 
-0.005341939686352566 
-0.02156988700628501 
0.004126052573094455 
0.08404632051501604 
-0.05167889251534781 
0.03444370246459106 
-0.03582978032139058 
0.02051062721352617 
-0.00459365429383068 
-0.01574906671586168 
-0.001466966373702292 
-0.009281766930644267 
-0.01563888463037293 
0.0009181647387287806 
-0.003113066511720085 
0.02475236434016976 
-0.0123301341851589 
-0.03100063584565425 
-0.06398320426045 
-0.003684532284014768 
-0.02440837428748277 
0.01283881506667054 
-0.01965595911780237 
0.01640418452428806 
-0.003838032933260844 
0.0350518444641427 
-0.002906617397840544 
0.02040716490309556 
0.02249202889937732 
-0.001003419870107748 
-0.004131152810786214 
0.0119581449542182 
-0.01218909022197925 
0.006801949554209485 
-1.345625240006215e-05 
0.02454820989298611 
0.0008975564233902996 
0.008257238012074493 
0.001294825925433605 
0.01429185182805163 
0.002987561314615466 
-0.002643520523951605 
0.01135422104696675 
-0.02964416238313786 
0.004144227438760958 
-0.01286957259250704 
-0.04389982371398511 
0.01778824346482137 
-0.03395789954892323 
-0.07623820616938498 
0.07944286599156899 
-0.02710086991790519 
-0.03501372637659889 
-0.0898699477529477 
-0.05751173207123274 
-0.005601230865540902 
-0.04351546765413365 
-0.02368071792450393 
-0.01240673007358803 
-0.002215246355224234 
-0.008708717232108094 
-0.07575831426435886 
-0.005002880737771215 
-0.01595651728326858 
-0.03052211337381819 
-0.02055791412989013 
-0.03038692613693876 
-0.03751469977609494 
0.03197539946812784 
-0.01141427680895573 
-0.02052534981629774 
0.01197423718425653 
0.01611301940714177 
-0.06540873763175228 
0.07106795177352843 
0.03356745701067164 
-0.05658863949472468 
0.06756212949687804 
-0.03383042676004942 
0.03712211915947193 
0.08121715839462981 
-0.09147441822038574 
0.1612994546232774 
-0.212556494228253 
-0.08867509759544452 
-0.007511340184744455 
-0.1377478943298873 
-0.01358536831593199 
-0.07093271618658163 
-0.02429764468904157 
0.02548552478034076 
0.02025162150901339 
-0.01761594089885649 
-0.08030359513307586 
0.07709605266989954 
-0.004823117961246765 
-0.06302832806003467 
-0.03776042320455301 
0.008285110008968224 
-0.0825664683623716 
-0.003951014278869258 
-0.01113741936736998 
0.005507129472496397 
-0.01047878116854355 
-0.01855422339815448 
-0.07418658649548074 
0.1413323612490087 
0.02458020895211147 
-0.008430955842577836 
-0.0008039960007205429 
0.04892915265424814 
0.01225109528944113 
-0.02512321609706017 
-0.1221782840001604 
0.3208073837491807 
-0.04792572029009173 
-0.08372134897004053 
0.08800526469974665 
0.09283519705226662 
-0.07497540483322579 
-0.02922109499720714 
-0.06300919469360713 
0.2006079853391967 
-0.04669988121706839 
-0.07925295183125249 
0.05628897912043995 
-0.02142038306810878 
0.0008803455016783531 
-0.08695284388505888 
-0.06794851398406668 
0.1194607584639037 
-0.03895736242424726 
-0.0332168240279473 
0.01391022151392405 
0.0275191059718898 
-0.02116069199332953 
0.01248704989096227 
-0.02910103570068806 
0.04696726847141226 
-0.004586920906423306 
0.02226359310537802 
-0.005628065517169962 
0.009772085447084831 
-0.01340471828315285 
-0.009972846062471532 
-0.0733848103689147 
0.1274852667734963 
-0.04016767689689548 
0.008138078006434641 
0.01205602817066307 
0.0377307502647143 
-0.01428994356663539 
-0.0471512193435213 
-0.06634707552221972 
0.1151664414592676 
0.00202927346006524 
-0.05402688399118617 
0.007271366297080188 
0.07743995069869923 
-0.07591155289836378 
0.004498800528461759 
-0.0205616408013403 
0.03776446957290601 
0.01357348681069796 
0.001298428653418645 
-0.005206120312239774 
0.007529200844159213 
-0.03008637420360165 
-0.002147593678984242 
0.01458282833451829 
-0.001039424805608525 
0.02625701035372176 
-0.006454298928608128 
0.01724092914948218 
-0.009401575502631312 
0.005462355088781658 
0.008876805950745425 
-0.03574004250370597 
0.02075506051411949 
0.02587009973407342 
-0.03440476324091887 
-0.0006510698224907814 
-0.0272365084193243 
-0.03762719930503256 
0.001020789287624315 
-0.03569396756192338 
-0.01250621022270815 
0.02362567997181567 
-0.04993770241434405 
-0.01501725476794312 
-0.05567940523097476 
0.03188298573732972 
-0.01121575863332574 
-0.008245452208871349 
0.001069088242827452 
-0.01258340991818698 
-0.03203760403171257 
0.01126943378102678 
-0.01142289158839592 
0.01738163680352899 
-0.04076086325220797 
0.009350402766699569 
-0.04603099634192709 
0.03753684788510225 
-0.02304267031464943 
-0.03448475806295066 
-0.02127740418359269 
0.06191970158280431 
0.001102674005132181 
0.02498297306860498 
0.007901550439899149 
0.06208847332521466 
-0.004841104568097748 
0.01879882580761516 
0.02807319520118426 
0.02434336235832876 
0.002546210692778449 
0.006759173497110838 
-0.02954635921585066 
-0.04569007337421787 
-0.07460316276683278 
-0.005268213558837314 
-0.02862527007434698 
0.02215497600879712 
-0.01271289814183519 
-0.03814625854092349 
-0.02331439245157586 
-0.01734853240667325 
-0.004096136424687181 
-0.01610566238063315 
-0.0180698558831013 
0.01465757530341214 
0.009034241484994222 
0.02131052252031943 
0.04321656369714169 
-0.008895245689511565 
0.002372813493119066 
0.01964546875865125 
-0.01522263631217575 
-0.001804266576220677 
0.01036615521746728 
0.0886215706870199 
-0.03308743374399813 
0.03730295450851786 
-0.00122772651566762 
0.05383580651601581 
-0.004574346445563653 
-0.01634776090220261 
-0.06750378602903467 
-0.1213589643363104 
-0.02695595939554897 
-0.06899252297565898 
-0.0167492127138138 
0.08358144385864041 
0.01972663776094033 
-0.001789502503657144 
0.0009478226021419494 
-0.03639302444537019 
0.05696095713395376 
-0.02535064153250075 
-0.01253294618583499 
0.01821251653097526 
0.02401384551007591 
-0.02534970109597964 
0.007562157650033461 
-0.0008099994820370267 
0.01282859000334392 
0.01356741697483617 
0.001382619306428169 
0.01799877623489146 
0.009919601904897889 
0.01124227453132939 
-0.003044075350535116 
-0.003406850121054512 
-0.03265838369347986 
0.02743696843035982 
0.02788911392630745 
-0.001042965581933287 
0.00997890904696201 
0.01703676808001278 
-0.02882313244974131 
0.006653238515141532 
-0.006153705155043957 
-0.03023324895549298 
0.01089813960910431 
0.02697186698186948 
0.04262097916989472 
0.01154441892124229 
-0.0003920248136690994 
-0.008932339959094199 
0.01829474660850872 
0.004590134105497521 
-0.007851499458169257 
0.002148805560718722 
0.01967815650627274 
0.009884798651497391 
-0.01723239599837091 
-0.009997087393658672 
0.03983423926827183 
-0.01212796823029528 
-0.0003551200191327413 
0.01731259858596434 
0.002688134465298772 
0.0002499510726025285 
-0.01043628792984659 
0.02597117325996723 
0.04101728939836361 
-0.007456197593595969 
0.02145746381018375 
0.01491414534957499 
0.02727058743195001 
0.04931164187392646 
-0.07717739895491746 
-0.05536620722272844 
0.1016342200218819 
0.03641152582131173 
0.007227867653633091 
-0.06772763658564482 
0.01019152990927028 
-0.02766665557234663 
-0.01014360159778922 
0.008996780954930676 
-0.03708191489055097 
-0.01012092476318695 
0.02678751893027766 
-0.0509658309028615 
0.000538779248456349 
-0.03020009656414142 
0.01667709773419973 
-0.02178558353966645 
0.1179176323939966 
0.02463363117317366 
0.02880116375554814 
0.05366433648466641 
-0.04478871191612718 
-0.01987631042567438 
-0.04879980322183215 
0.05397916721885006 
0.04430166525790516 
0.09988583309969314 
-0.08081126732836076 
0.09124575358355792 
-0.1888587531123592 
0.2166999311023487 
-0.1524045844911712 
-0.3020184792491175 
0.3236010145390003 
0.2494997620327776 
-0.07988245778230885 
-0.06692428007842499 
-0.06408769895600533 
-0.09964414470699619 
-0.03233795437824903 
-0.05076492870164705 
-0.05935558504637749 
0.01687314854982655 
0.03701805203704722 
-0.09674304095676263 
0.009766722919360296 
-0.09005938538549944 
0.1217792009235763 
-0.03025038218726044 
0.08780471832050227 
-0.02963369338920919 
0.07602705707739912 
0.0445155429417165 
-0.02276685628419757 
-0.05527637352181315 
0.0243891200331169 
-0.06826152985236225 
-0.1241336399146545 
0.1106141923456247 
0.06274670872784652 
0.05859530271127271 
0.0441874132517106 
0.1813326410461799 
-0.08725813786934668 
-0.1156507553731866 
0.03484933856755112 
-0.1402831816386302 
-0.018482171251071 
-0.1669582259756734 
-0.04934735084595131 
-0.1172248536122805 
-0.002028029313824136 
-0.05292100476331629 
0.05869459680982177 
0.05388795869168721 
-0.02967066945755302 
-0.03196484248863129 
0.009847404371274451 
-0.1106887519003426 
0.0466600673882777 
-0.02685914445407128 
0.03251451989420122 
-0.008795927819018222 
0.01326648489905092 
0.0150249974375421 
-0.006266588347934129 
-0.02811916403493948 
-0.02361401884864505 
-0.03844881062346509 
-0.03262463351665571 
0.0110080174979243 
-0.02570518577451331 
-0.03846048689189854 
-0.04941196383209038 
0.02415087333889831 
-0.05659503859605809 
-0.01270486329658189 
0.0165889027349811 
-0.0682641165865799 
-0.004015376599289318 
-0.08142209371947694 
-0.005902897526615419 
-0.04913554666763856 
-0.009281256657078605 
0.002667043091784961 
0.01532677208433425 
-0.003302824493218702 
-0.002500456126309043 
-0.002825857827080947 
0.007544946563229926 
-0.02389411011986842 
0.002217305556500818 
-0.0008439757508992775 
-0.0075721709901841 
0.006423712663024602 
0.0009066906429249697 
-0.008199650819437928 
-0.01579272491269255 
0.003702474991433683 
-0.01739552482485241 
-0.001890988315431733 
-0.01779222732379878 
-0.03207394283228261 
0.00954260292759236 
-0.02944552655330833 
-0.03183009802668871 
-0.01606386160078957 
-0.009059121504560666 
-0.01170227047633218 
-0.05735230151035921 
-0.02636849067455695 
0.001233197033992983 
-0.0459523643314295 
-0.03757162634298923 
-0.0008454193669444568 
0.007234031185666022 
-0.01489784705041651 
0.01606284298433477 
0.0046604035206284 
-0.007990275923244999 
-0.01762884615214519 
-0.01503399858814669 
-0.008640803284305209 
0.006064525795368458 
-0.02201537663395989 
-0.01275571583594982 
-0.0004951447238823459 
0.01252405895732539 
0.02564992152300459 
0.00776692918185408 
0.02679406964637633 
-0.05967291946407069 
-0.01166251356551589 
-0.04906582669567524 
0.0633307494345757 
0.01718307550849446 
-0.003991494126681897 
-0.05385517968576084 
0.05097298147992651 
-0.09018135455657438 
-0.07921053794081018 
-0.101145538432813 
-0.1173959294752961 
-0.06447753837096203 
-0.05632157416510244 
-0.04085503109375273 
0.0253112642304339 
0.01712622766053338 
-0.005580995847634798 
-0.02079727405007571 
-0.05830630011914463 
0.0119566889069792 
-0.02146655573093479 
-0.01751497783326348 
-0.03992273712022761 
0.03201544821068811 
0.0002658773070161733 
-0.0367063034938199 
-0.009676524065309342 
0.03724518101236771 
0.005874561205386324 
-0.01675384264602235 
-0.03523494428882196 
-0.1299745771802611 
0.08249466715778074 
-0.1036080057434311 
-0.08091839565233787 
0.1133114418353617 
-0.07686050452366004 
0.05563186095949711 
-0.02428542977138671 
-0.09977658536019779 
-0.00201590078011297 
-0.04037023336727358 
-0.03515155610397819 
0.03826210782433564 
-0.09118389247531564 
0.1207443470601465 
0.08521895038845806 
-0.01928041446374254 
0.02756693901293632 
0.01768715634381864 
-0.03313957284286306 
0.01263314673369171 
-0.01041610046384323 
0.08019844242393639 
0.007130330002749671 
-0.00139865664655738 
-0.01020286399671756 
0.01932238239388765 
0.01433361869361726 
-0.02520637616019667 
0.01507652117504621 
0.001424002295968918 
-0.002441634396714034 
-0.02325084246669324 
-0.006410508765355591 
-0.01127507642880569 
0.03716069578374243 
-0.03394886628587453 
-0.0183864901199527 
0.004458735877579469 
0.01054319708765648 
-0.03434954140571362 
-0.006187231045046147 
-0.01001659881070824 
0.01521552784737098 
0.02699639481772008 
0.009207223774076373 
0.02499133218814191 
0.02530191278367733 
-0.006501094766635905 
0.002258314135887985 
0.02248746593245644 
-0.008787044415493831 
0.006963691372146724 
-0.004579930867936669 
0.03121915957627174 
0.003907891040885182 
0.03216723929545633 
0.04181375047339387 
-0.01997875007987262 
0.05163675687228405 
-0.01180033890047026 
0.007763621618280607 
-0.02010494746928642 
0.002287438963624252 
-0.0470499871627167 
0.1198958936802714 
-0.07283324302114394 
-0.04751892004077789 
0.06844728475624944 
-0.0408425800209351 
0.01528363293441612 
0.1086117940922378 
-0.002370079464746403 
0.1214056285517303 
-0.0475711769302548 
-0.001148943579139562 
0.04007097147842565 
0.05439166632862514 
0.07577780595967089 
0.1100225493346943 
-0.03360125246171124 
0.0328055475624817 
-0.02264649648319333 
0.006706376125760693 
0.0004716078592587375 
-0.002417959651043623 
0.00451155900651383 
0.03391940640537889 
0.01259502080033252 
0.06606948121599002 
0.03852900290020842 
0.1152667524701395 
0.01953155443332711 
-0.01683439522412845 
-0.08321854020691578 
-0.05749420864293392 
-0.01759610818753111 
-0.0137962524568688 
-0.249566725619773 
0.05390370655896155 
-0.05085460638074484 
-0.08988181025657394 
-0.1097416396877714 
0.00750229017262556 
-0.01760862185473934 
0.03143279973217366 
-0.1242076914592962 
0.05168207902528969 
-0.1121597566060585 
0.09244437670583409 
-0.1075349207862109 
0.07880177897059817 
0.0222701973510847 
-0.01499138332968557 
-0.07852790593480714 
0.006335546792857459 
0.0419178775183801 
0.008011958751429156 
-0.04468379155611164 
0.01847335938117858 
-0.07209836737376678 
0.07715678057751459 
0.03375046620708573 
0.1382418011496556 
-0.0818991659221425 
0.01328817168265146 
0.03218147637642251 
-0.01771152999335149 
-0.1310364273531927 
0.05641597026801794 
0.05926564275269008 
-0.02639136157188675 
-0.03035745831112592 
-0.05075474626952361 
0.06298209653099629 
-0.005282076477714177 
-0.01973480182197787 
0.147521665730861 
-0.1097745353874169 
-0.05876787142313007 
0.1514302895648706 
0.08839252725673695 
-0.03235685315645866 
0.1049454763976451 
-0.03544430889566969 
-0.03494769129842182 
0.007886188456511635 
-0.006407273694153642 
0.01037199208701599 
-0.001751904814656471 
0.03069135444312436 
-0.01059371023684245 
0.0086788776299305 
0.02564211109178822 
-0.01621881531300647 
0.0591155379297735 
-0.004931141595478319 
-0.0001762709633655293 
-0.02912954766083379 
0.001924965120322666 
0.03036843308603957 
0.0615231001874249 
0.03681297425925455 
0.1432102421562523 
-0.00711788668378738 
0.006728287785750089 
-0.04007953497069316 
0.04599727839331609 
-0.01613882836398694 
0.1019554776330976 
-0.02450221875672724 
0.09222378161078264 
0.04727242308922554 
-0.01685995654181159 
-0.06837549836276482 
0.1045650374093363 
0.001036017190967118 
-0.01230438684682786 
0.007046899091249154 
0.00239995533403951 
-0.01905616131795757 
0.001040966101188198 
-0.01478113405124557 
0.01965096279125095 
-0.02112203834577452 
0.02289381157099877 
0.01150372667244019 
0.002343807760459329 
-0.000334592629004235 
-0.007782045438326173 
0.008140228652713561 
-0.004528625435437266 
-0.009938621198524575 
-0.007961206013060353 
0.01654317171929485 
0.0002271339568781424 
0.005495770779557991 
-0.0435519912590568 
-0.003548108735573621 
-0.024702615670614 
0.007282203372989769 
-0.000829546163477684 
0.03321112414979712 
-0.008887286954924882 
0.03294761972313107 
0.007821624285248113 
-0.006503291260059532 
-0.02038080681821518 
0.03081192317740256 
-0.01229147331677286 
0.004601385913366238 
-0.02172218627879847 
0.01574611616219848 
0.002951078505044831 
-0.01281246933324401 
-0.01675738027190245 
-0.06548157842329988 
-0.06779207599162601 
0.01475245993957834 
-0.0077390983004123 
0.003398682372229618 
-0.001765212322660395 
0.02803671402466226 
0.02223404870444044 
0.004485773012686431 
0.0622757338610775 
0.04162470562194716 
0.07835022020551448 
0.01945866061141393 
0.02916510768092177 
0.05801115235558139 
0.03877811148159023 
0.04774788555206745 
0.02971885446857938 
0.01687960627530173 
0.01478497346558903 
0.08244288586903453 
0.05498690006895593 
-0.007026883261057725 
-0.06410621005490731 
0.06006564827049999 
-0.02248430710259858 
0.04330210253221643 
0.0087048459718871 
0.007268533620690459 
-0.01610609824833695 
-0.0378152864602652 
-0.06938123758244336 
-0.02846561684190131 
-0.06400855138952656 
0.01232944538421026 
-0.008283002477527869 
0.03909616790827657 
-0.02617312330229191 
0.003818389207034601 
-0.02266959914021452 
0.002592452732979755 
-0.0363162763032902 
-0.0266952875392164 
0.03746284106214088 
0.02209067970571158 
-0.1025890573683057 
0.01399589694772448 
0.0160472761341989 
0.02404653558313729 
-0.07648098068359736 
0.03267544365797686 
-0.024795010805485 
0.02832882305631852 
0.03881170675366638 
-0.01493063449911847 
-0.03245949755798158 
0.02334396846324453 
0.02082153483102693 
0.03688047425651449 
-0.0004407108669275037 
0.02499776120562778 
-0.02592702011372706 
0.02505890139734104 
-0.03014796839295652 
-0.009222898613160561 
-0.02252058896207653 
0.006887433627390729 
-0.01056331622357766 
0.02247475605410795 
-0.01794895090762807 
-0.01946579495647055 
-0.007310850807788961 
0.02038725628064824 
0.007537959177164513 
-0.009108584884510515 
-0.05574491091246635 
0.07757302064218541 
-0.06555236462944675 
-0.03411100394559244 
-0.005860231966947964 
0.0009169284900465813 
-0.04421554060606973 
-0.01217705923312187 
-0.05392678106997584 
0.02829085182891106 
-0.03209837533841554 
-0.0135718278233877 
-0.01411637907372011 
-0.00205115764377227 
0.005256974665218913 
0.009756988326042344 
0.001860333679573467 
-0.00515033999074716 
-0.01193335697659797 
0.003426236068625164 
-0.01220590682815784 
0.005088473553769268 
0.008677154007705227 
0.04926077121856624 
-0.01053284744397621 
-0.01669691977743502 
0.03089594398333793 
0.03384387152116006 
-0.0007972945676555242 
0.003354702538948417 
0.03310840798101036 
-0.07527975627062986 
0.005049936976007056 
-0.007306213716269446 
-0.0132388960790105 
0.004580811263389243 
0.0646165850060578 
-0.05504720642170359 
-0.1046361161701075 
-0.05424149593652036 
0.03438216674603359 
-0.05707309146801269 
-0.1058541936892653 
-0.03272569889216791 
-0.0183765429405053 
0.04199737857445122 
0.0414807748090058 
0.003560468115701579 
0.02467922920749586 
-0.005193373990284207 
-0.007611147964617472 
-0.02583237436586095 
-0.01738333751322885 
0.02297887624811516 
-0.009246847822808602 
0.05711143492154443 
0.01255341496772185 
-0.03647142976915294 
0.05617680834968784 
-0.05835202767695196 
0.0002409869158575268 
0.04215450280420414 
0.1145904798804917 
-0.03401527797557978 
0.1134803056823322 
-0.04389303014481176 
0.08147058898228833 
-0.1234687003931562 
0.1390826949260094 
-0.02628226260153289 
-0.1093776869332637 
-0.2289967990516684 
-0.1274538693631758 
0.1243825720825667 
-0.1787085968196489 
0.07044401908375282 
0.01506084388537644 
0.1078781189179846 
0.1491373722017403 
-0.04453354106175602 
0.06285077318237969 
0.05164536583854104 
-0.02704261898316676 
-0.01929382009504566 
-0.07074854723872011 
0.03990170392142451 
-0.03645485064307194 
0.01328378186775563 
0.02558958007681588 
-0.02651589509923939 
0.05306641678506233 
0.02024743277706463 
-0.003987684603013837 
0.290878529922461 
0.1355964542977947 
0.0150873207341333 
0.1788821185311195 
0.05774128297806909 
0.1796477997974273 
0.04949246026033922 
0.1880530702747339 
-0.1300946056080795 
-0.0100570118957498 
-0.1887930077039506 
-0.04163254778030729 
0.1649508539934101 
0.08543592267826626 
0.04212376593603975 
-0.02667902517127472 
0.08608900049292739 
0.1265635820316275 
-0.135125420914984 
0.07209883914370205 
0.1124499214267761 
-0.03184075556864387 
0.02837982394660545 
-0.04911068303162221 
0.02868633020816136 
0.01077642835081928 
-0.01378704067177616 
-0.01093069871817341 
0.05003274729285986 
0.02000427795371766 
0.02113621886200107 
0.02901256189760791 
0.1288054781956428 
0.1111560202894707 
0.007263957750270562 
0.07921220189660581 
0.1146905468759953 
0.1184949176310651 
0.02024555240913124 
0.09988467432876252 
0.02007552124913934 
0.06267557182620027 
-0.1030715111731246 
-0.07393861445349192 
0.1080916446860369 
0.03626896336669789 
-0.0009124751777658485 
-0.009181019200168044 
0.02293896502131315 
0.04992583082646019 
-0.008352627624066343 
0.03820364588235863 
0.005071305925664352 
-0.001001046756038607 
0.006432797617947314 
-0.03051892388264448 
-0.01569190079524593 
0.009799759726015083 
-0.01118655147890668 
-0.002788992467144214 
-0.003301132343955705 
-0.01384764835455699 
-0.01329644633941504 
0.01155006562752302 
0.01158045540799666 
-0.009495625097859334 
0.01884851030561652 
0.01062754823378115 
-0.005165236665815288 
0.002666523907388155 
-0.00611899152145432 
0.006238003163067359 
-0.00311627560224434 
-0.01022900363948253 
0.03271813991048106 
-0.04517171466513186 
0.03742316821578414 
0.02612891809831924 
0.05941805022777721 
-0.01092566124435481 
-0.003193985336338999 
-0.001200424038679546 
0.006467597918339393 
-0.008361884672573172 
0.03258009617542613 
0.009011273686658815 
-0.0003264813343267281 
-0.01373320940754512 
0.03051872504687931 
0.04338403816871154 
0.0003227937093918248 
-0.009186148908800016 
0.1002483231571899 
0.06525879023678292 
0.03877623464467798 
0.01442722631957183 
-0.001761709337188194 
0.05942466400931657 
0.08744015689458755 
0.02516914979352623 
0.09368209345567757 
0.1831743990555568 
0.08091410682076049 
-0.07715499026031146 
-0.08830707392682004 
-0.04222541008110054 
-0.01782825005606097 
-0.06665445173585312 
0.01886070676626706 
-0.02019215665116931 
0.004126947010474769 
-0.05883564560536853 
0.00145550063209448 
-0.01858368927872562 
-0.04882756408342726 
-0.01048319965704361 
-0.001627584604694504 
-0.0572178843263678 
-0.04134225394417166 
0.02508384704701566 
0.04840592676652817 
0.05068459037463827 
0.01948932754342893 
0.02445083319745907 
0.02459168059193918 
0.0622722805332907 
0.04538490329609745 
0.006641595861149194 
-0.06523522401976049 
-0.09021115396724386 
-0.1167428836696986 
-0.0913198145274822 
0.1171860691595979 
-0.04039511358326765 
0.06535139184421727 
0.02821283045912773 
0.01444439821690865 
-0.1455655362182572 
-0.07364580714120295 
-0.0686026451903228 
0.02478364502856021 
-0.009687950475430192 
0.01756970024881808 
-0.001033728796523732 
0.007861967683598384 
-0.04067544047795967 
-0.02169846115014776 
-0.001177199051437346 
0.008748855285872844 
0.02625815878208577 
-0.0143971247605108 
-0.005486394836628839 
0.01688986963966345 
-0.001256821580891893 
-0.004960362645895069 
0.00636665777705935 
-0.0004697512629786541 
-0.006700425663552562 
-0.007506322674182041 
0.007095597263535126 
-0.01467941879630971 
-0.02231543273216595 
-0.01407286171130717 
-0.03830462802318649 
-0.008940336974801644 
0.01329894673956004 
0.001278806923166118 
-0.01503367883754726 
0.004426528265201672 
0.01812556031327367 
-0.04677121536691996 
-0.02528218266121476 
0.07593777001212812 
-0.0007398454908523264 
-0.009532392752783808 
0.02887645745005781 
-0.01233908517516208 
-0.01627197064418596 
-0.01366055893581688 
-0.006556802365609347 
-0.01299913945588324 
-0.008744787989217021 
0.008214595552005429 
0.02522731497558037 
-0.0159629460119245 
-0.005003562608232428 
0.01984321251001924 
-0.006330121593864045 
0.006229263368191571 
-0.008268971053516542 
0.01208724686804265 
-0.004222449145673824 
-0.06820097423083812 
-0.01584631375134915 
-0.005991716499313815 
-0.01309024624317998 
-0.02110812766898069 
-0.02394794389627712 
0.02027421677111086 
0.007489885564503787 
-0.07363412915069781 
0.06071592039898377 
-0.05405025894996598 
0.01186749484659693 
0.0009894301519572119 
-0.02726844284522864 
0.0007173293663004552 
0.0372530900822397 
0.0232760417581499 
0.006362834012450249 
0.002913024056390799 
0.003839589503069842 
0.00433779682721294 
0.008479948608181732 
-0.006283606160859588 
-0.003047289482065665 
-0.04477404726095538 
0.01211344457239729 
0.03542465913784341 
-0.05744230073640103 
0.0001387485726901206 
-0.001249272072408332 
0.04904372317986817 
-0.003931642262078277 
-0.161194174375866 
-0.1719953662818143 
-0.06794304447767548 
-0.111516777831815 
0.007973899991406118 
-0.03980707514648765 
0.004706846439433211 
0.04265627606477185 
-0.1254506309384796 
0.09057754490544542 
-0.1012087608262173 
-0.01078086211034579 
0.07797164116799025 
-0.1066909476248084 
-0.01771492035897047 
0.03021001855964995 
0.03222607148953666 
0.0138106245326523 
0.01612227257438485 
0.01905681008062558 
0.03131242622109741 
-0.005997567611055761 
-0.000185452368365639 
-0.00657472644235664 
-0.04656711903394919 
-0.03782384328117738 
0.05660155857614954 
-0.04316021163764779 
-0.03303995531647898 
0.006015193506184329 
0.04868703776632431 
-0.02841544829342469 
-0.1489481518569295 
-0.1574761142250797 
-0.09148717520863273 
-0.1450712441417259 
0.01961507854711259 
-0.08140112193929867 
-0.008073692496556876 
0.05908023701757518 
-0.1387304921085661 
0.05675786325666492 
-0.08693311816134773 
-0.09388386014051113 
0.1306948256056336 
-0.08973839194547566 
-0.01193321453383764 
0.010697874305999 
-0.008909260823711988 
0.01859516542840982 
0.0541538525779106 
0.02485741882879617 
0.0003128926416990879 
-0.01806036170936801 
0.01628948821906096 
0.008155786268185257 
0.002244058458985021 
-0.02338337348525065 
-0.007111611972602724 
-0.006820481673293156 
-0.002547601459020023 
-0.002530659083877977 
-0.0119440652041728 
-0.01799209263912016 
-0.04205324995246403 
-0.07293698121752562 
-0.01331810563786572 
-0.01518079778342933 
-0.009488715376157175 
0.001740831438652737 
-0.03551076405944926 
0.003528751019761169 
-0.08332362692578597 
0.02108685776613224 
0.001042560753845527 
-0.04895461053488025 
0.004396109636982272 
-0.02476754234337146 
-0.007071179460237158 
-0.0133501094068851 
-0.01926973299961404 
0.02133402757185679 
0.02370220659073378 
0.004676660390050725 
0.004076890953624982 
-0.01356279869828234 
0.007957238054226884 
0.006445917486048568 
